<?xml version="1.0"?>
<opencv_storage>
<cascade>
  <stageType>BOOST</stageType>
  <featureType>HAAR</featureType>
  <height>32</height>
  <width>32</width>
  <stageParams>
    <boostType>GAB</boostType>
    <minHitRate>9.9500000476837158e-01</minHitRate>
    <maxFalseAlarm>5.0000000000000000e-01</maxFalseAlarm>
    <weightTrimRate>9.4999998807907104e-01</weightTrimRate>
    <maxDepth>1</maxDepth>
    <maxWeakCount>100</maxWeakCount></stageParams>
  <featureParams>
    <maxCatCount>0</maxCatCount>
    <featSize>1</featSize>
    <mode>BASIC</mode></featureParams>
  <stageNum>8</stageNum>
  <stages>
    <!-- stage 0 -->
    <_>
      <maxWeakCount>2</maxWeakCount>
      <stageThreshold>-3.9617022871971130e-01</stageThreshold>
      <weakClassifiers>
        <_>
          <internalNodes>
            0 -1 13 -3.5032355785369873e-01</internalNodes>
          <leafValues>
            9.6638655662536621e-01 -9.8260867595672607e-01</leafValues></_>
        <_>
          <internalNodes>
            0 -1 14 -1.0626743733882904e-01</internalNodes>
          <leafValues>
            5.8643847703933716e-01 -1.</leafValues></_></weakClassifiers></_>
    <!-- stage 1 -->
    <_>
      <maxWeakCount>3</maxWeakCount>
      <stageThreshold>-1.0678253173828125e+00</stageThreshold>
      <weakClassifiers>
        <_>
          <internalNodes>
            0 -1 12 -1.5283313393592834e-01</internalNodes>
          <leafValues>
            9.8039215803146362e-01 -9.4403892755508423e-01</leafValues></_>
        <_>
          <internalNodes>
            0 -1 16 1.5738257765769958e-01</internalNodes>
          <leafValues>
            -9.5650392770767212e-01 7.1880686283111572e-01</leafValues></_>
        <_>
          <internalNodes>
            0 -1 18 1.7021004110574722e-02</internalNodes>
          <leafValues>
            -8.4045702219009399e-01 8.3271753787994385e-01</leafValues></_></weakClassifiers></_>
    <!-- stage 2 -->
    <_>
      <maxWeakCount>2</maxWeakCount>
      <stageThreshold>6.5454542636871338e-02</stageThreshold>
      <weakClassifiers>
        <_>
          <internalNodes>
            0 -1 7 -3.3845227956771851e-01</internalNodes>
          <leafValues>
            9.5959597826004028e-01 -9.3454545736312866e-01</leafValues></_>
        <_>
          <internalNodes>
            0 -1 19 -1.6633175313472748e-01</internalNodes>
          <leafValues>
            1. -7.9114490747451782e-01</leafValues></_></weakClassifiers></_>
    <!-- stage 3 -->
    <_>
      <maxWeakCount>3</maxWeakCount>
      <stageThreshold>-1.4792045354843140e+00</stageThreshold>
      <weakClassifiers>
        <_>
          <internalNodes>
            0 -1 10 -5.9289687871932983e-01</internalNodes>
          <leafValues>
            7.7777779102325439e-01 -8.7663108110427856e-01</leafValues></_>
        <_>
          <internalNodes>
            0 -1 4 -4.5436818618327379e-04</internalNodes>
          <leafValues>
            3.1304839253425598e-01 -8.7460827827453613e-01</leafValues></_>
        <_>
          <internalNodes>
            0 -1 0 -1.3823146582581103e-04</internalNodes>
          <leafValues>
            2.7203476428985596e-01 -9.6726334095001221e-01</leafValues></_></weakClassifiers></_>
    <!-- stage 4 -->
    <_>
      <maxWeakCount>3</maxWeakCount>
      <stageThreshold>-8.8080817461013794e-01</stageThreshold>
      <weakClassifiers>
        <_>
          <internalNodes>
            0 -1 11 -5.1862341165542603e-01</internalNodes>
          <leafValues>
            5.0458717346191406e-01 -8.9693254232406616e-01</leafValues></_>
        <_>
          <internalNodes>
            0 -1 5 -2.8162592649459839e-01</internalNodes>
          <leafValues>
            5.3874891996383667e-01 -6.6696071624755859e-01</leafValues></_>
        <_>
          <internalNodes>
            0 -1 8 -5.8510994911193848e-01</internalNodes>
          <leafValues>
            7.9517531394958496e-01 -5.2262455224990845e-01</leafValues></_></weakClassifiers></_>
    <!-- stage 5 -->
    <_>
      <maxWeakCount>3</maxWeakCount>
      <stageThreshold>-1.5546840429306030e+00</stageThreshold>
      <weakClassifiers>
        <_>
          <internalNodes>
            0 -1 2 -7.5256727635860443e-02</internalNodes>
          <leafValues>
            -2.9970327019691467e-01 -9.7955709695816040e-01</leafValues></_>
        <_>
          <internalNodes>
            0 -1 3 -4.0699826786294580e-04</internalNodes>
          <leafValues>
            2.4328811466693878e-01 -8.3762323856353760e-01</leafValues></_>
        <_>
          <internalNodes>
            0 -1 17 -7.3731178417801857e-05</internalNodes>
          <leafValues>
            2.6249620318412781e-01 -9.7012907266616821e-01</leafValues></_></weakClassifiers></_>
    <!-- stage 6 -->
    <_>
      <maxWeakCount>2</maxWeakCount>
      <stageThreshold>-9.4590836763381958e-01</stageThreshold>
      <weakClassifiers>
        <_>
          <internalNodes>
            0 -1 1 -1.0879401862621307e-01</internalNodes>
          <leafValues>
            -1.1787072569131851e-01 -9.7579425573348999e-01</leafValues></_>
        <_>
          <internalNodes>
            0 -1 20 -2.1421807468868792e-04</internalNodes>
          <leafValues>
            2.2769978642463684e-01 -8.2803767919540405e-01</leafValues></_></weakClassifiers></_>
    <!-- stage 7 -->
    <_>
      <maxWeakCount>4</maxWeakCount>
      <stageThreshold>-1.0536094903945923e+00</stageThreshold>
      <weakClassifiers>
        <_>
          <internalNodes>
            0 -1 6 -2.6581448316574097e-01</internalNodes>
          <leafValues>
            8.9473682641983032e-01 -8.0135440826416016e-01</leafValues></_>
        <_>
          <internalNodes>
            0 -1 21 1.2244487879797816e-04</internalNodes>
          <leafValues>
            -9.0706044435501099e-01 3.4694346785545349e-01</leafValues></_>
        <_>
          <internalNodes>
            0 -1 15 -3.4511773264966905e-05</internalNodes>
          <leafValues>
            3.5775622725486755e-01 -9.2224258184432983e-01</leafValues></_>
        <_>
          <internalNodes>
            0 -1 9 4.1980779496952891e-04</internalNodes>
          <leafValues>
            3.2304397225379944e-01 -8.8882535696029663e-01</leafValues></_></weakClassifiers></_></stages>
  <features>
    <_>
      <rects>
        <_>
          0 0 6 6 -1.</_>
        <_>
          0 0 3 3 2.</_>
        <_>
          3 3 3 3 2.</_></rects>
      <tilted>0</tilted></_>
    <_>
      <rects>
        <_>
          0 2 27 10 -1.</_>
        <_>
          0 7 27 5 2.</_></rects>
      <tilted>0</tilted></_>
    <_>
      <rects>
        <_>
          0 3 27 8 -1.</_>
        <_>
          0 7 27 4 2.</_></rects>
      <tilted>0</tilted></_>
    <_>
      <rects>
        <_>
          0 6 6 13 -1.</_>
        <_>
          2 6 2 13 3.</_></rects>
      <tilted>0</tilted></_>
    <_>
      <rects>
        <_>
          0 7 6 13 -1.</_>
        <_>
          2 7 2 13 3.</_></rects>
      <tilted>0</tilted></_>
    <_>
      <rects>
        <_>
          0 8 30 11 -1.</_>
        <_>
          15 8 15 11 2.</_></rects>
      <tilted>0</tilted></_>
    <_>
      <rects>
        <_>
          2 8 16 14 -1.</_>
        <_>
          10 8 8 14 2.</_></rects>
      <tilted>0</tilted></_>
    <_>
      <rects>
        <_>
          2 9 30 11 -1.</_>
        <_>
          12 9 10 11 3.</_></rects>
      <tilted>0</tilted></_>
    <_>
      <rects>
        <_>
          3 0 27 26 -1.</_>
        <_>
          12 0 9 26 3.</_></rects>
      <tilted>0</tilted></_>
    <_>
      <rects>
        <_>
          3 7 7 15 -1.</_>
        <_>
          3 12 7 5 3.</_></rects>
      <tilted>0</tilted></_>
    <_>
      <rects>
        <_>
          4 5 27 18 -1.</_>
        <_>
          13 5 9 18 3.</_></rects>
      <tilted>0</tilted></_>
    <_>
      <rects>
        <_>
          4 7 27 14 -1.</_>
        <_>
          13 7 9 14 3.</_></rects>
      <tilted>0</tilted></_>
    <_>
      <rects>
        <_>
          6 7 24 7 -1.</_>
        <_>
          14 7 8 7 3.</_></rects>
      <tilted>0</tilted></_>
    <_>
      <rects>
        <_>
          9 0 19 27 -1.</_>
        <_>
          9 9 19 9 3.</_></rects>
      <tilted>0</tilted></_>
    <_>
      <rects>
        <_>
          11 0 21 14 -1.</_>
        <_>
          11 7 21 7 2.</_></rects>
      <tilted>0</tilted></_>
    <_>
      <rects>
        <_>
          12 1 2 2 -1.</_>
        <_>
          12 2 2 1 2.</_></rects>
      <tilted>0</tilted></_>
    <_>
      <rects>
        <_>
          13 9 15 20 -1.</_>
        <_>
          13 19 15 10 2.</_></rects>
      <tilted>0</tilted></_>
    <_>
      <rects>
        <_>
          15 26 10 6 -1.</_>
        <_>
          15 26 5 3 2.</_>
        <_>
          20 29 5 3 2.</_></rects>
      <tilted>0</tilted></_>
    <_>
      <rects>
        <_>
          16 9 6 16 -1.</_>
        <_>
          16 9 3 8 2.</_>
        <_>
          19 17 3 8 2.</_></rects>
      <tilted>0</tilted></_>
    <_>
      <rects>
        <_>
          17 5 15 15 -1.</_>
        <_>
          22 5 5 15 3.</_></rects>
      <tilted>0</tilted></_>
    <_>
      <rects>
        <_>
          25 20 5 12 -1.</_>
        <_>
          25 24 5 4 3.</_></rects>
      <tilted>0</tilted></_>
    <_>
      <rects>
        <_>
          30 17 2 8 -1.</_>
        <_>
          31 17 1 8 2.</_></rects>
      <tilted>0</tilted></_></features></cascade>
</opencv_storage>
